#include "myutils.h"
#include "pubeval.h"

const float PubEval::g_RaceWeights[122] =
{
.00000f,
-.17160f,
.27010f,
.29906f,
-.08471f,
.00000f,
-1.40375f,
-1.05121f,
.07217f,
-.01351f,
.00000f,
-1.29506f,
-2.16183f,
.13246f,
-1.03508f,
.00000f,
-2.29847f,
-2.34631f,
.17253f,
.08302f,
.00000f,
-1.27266f,
-2.87401f,
-.07456f,
-.34240f,
.00000f,
-1.34640f,
-2.46556f,
-.13022f,
-.01591f,
.00000f,
.27448f,
.60015f,
.48302f,
.25236f,
.00000f,
.39521f,
.68178f,
.05281f,
.09266f,
.00000f,
.24855f,
-.06844f,
-.37646f,
.05685f,
.00000f,
.17405f,
.00430f,
.74427f,
.00576f,
.00000f,
.12392f,
.31202f,
-.91035f,
-.16270f,
.00000f,
.01418f,
-.10839f,
-.02781f,
-.88035f,
.00000f,
1.07274f,
2.00366f,
1.16242f,
.22520f,
.00000f,
.85631f,
1.06349f,
1.49549f,
.18966f,
.00000f,
.37183f,
-.50352f,
-.14818f,
.12039f,
.00000f,
.13681f,
.13978f,
1.11245f,
-.12707f,
.00000f,
-.22082f,
.20178f,
-.06285f,
-.52728f,
.00000f,
-.13597f,
-.19412f,
-.09308f,
-1.26062f,
.00000f,
3.05454f,
5.16874f,
1.50680f,
5.35000f,
.00000f,
2.19605f,
3.85390f,
.88296f,
2.30052f,
.00000f,
.92321f,
1.08744f,
-.11696f,
-.78560f,
.00000f,
-.09795f,
-.83050f,
-1.09167f,
-4.94251f,
.00000f,
-1.00316f,
-3.66465f,
-2.56906f,
-9.67677f,
.00000f,
-2.77982f,
-7.26713f,
-3.40177f,
-12.32252f,
.00000f,
3.42040f
};

const float PubEval::g_ContactWeights[122] =
{
.25696f,
-.66937f,
-1.66135f,
-2.02487f,
-2.53398f,
-.16092f,
-1.11725f,
-1.06654f,
-.92830f,
-1.99558f,
-1.10388f,
-.80802f,
.09856f,
-.62086f,
-1.27999f,
-.59220f,
-.73667f,
.89032f,
-.38933f,
-1.59847f,
-1.50197f,
-.60966f,
1.56166f,
-.47389f,
-1.80390f,
-.83425f,
-.97741f,
-1.41371f,
.24500f,
.10970f,
-1.36476f,
-1.05572f,
1.15420f,
.11069f,
-.38319f,
-.74816f,
-.59244f,
.81116f,
-.39511f,
.11424f,
-.73169f,
-.56074f,
1.09792f,
.15977f,
.13786f,
-1.18435f,
-.43363f,
1.06169f,
-.21329f,
.04798f,
-.94373f,
-.22982f,
1.22737f,
-.13099f,
-.06295f,
-.75882f,
-.13658f,
1.78389f,
.30416f,
.36797f,
-.69851f,
.13003f,
1.23070f,
.40868f,
-.21081f,
-.64073f,
.31061f,
1.59554f,
.65718f,
.25429f,
-.80789f,
.08240f,
1.78964f,
.54304f,
.41174f,
-1.06161f,
.07851f,
2.01451f,
.49786f,
.91936f,
-.90750f,
.05941f,
1.83120f,
.58722f,
1.28777f,
-.83711f,
-.33248f,
2.64983f,
.52698f,
.82132f,
-.58897f,
-1.18223f,
3.35809f,
.62017f,
.57353f,
-.07276f,
-.36214f,
4.37655f,
.45481f,
.21746f,
.10504f,
-.61977f,
3.54001f,
.04612f,
-.18108f,
.63211f,
-.87046f,
2.47673f,
-.48016f,
-1.27157f,
.86505f,
-1.11342f,
1.24612f,
-.82385f,
-2.77082f,
1.23606f,
-1.59529f,
.10438f,
-1.30206f,
-4.11520f,
5.62596f,
-2.75800f
};
